## LambdaMART
## No. of trees = 1000
## No. of leaves = 10
## No. of threshold candidates = 256
## Learning rate = 0.1
## Stop early = 100

<ensemble>
	<tree id="1" weight="0.1">
		<split>
			<feature> 22 </feature>
			<threshold> -0.04957493 </threshold>
			<split pos="left">
				<output> -1.9856373071670532 </output>
			</split>
			<split pos="right">
				<feature> 1 </feature>
				<threshold> -0.7662201 </threshold>
				<split pos="left">
					<feature> 1 </feature>
					<threshold> -0.9473686 </threshold>
					<split pos="left">
						<feature> 1 </feature>
						<threshold> -0.98853874 </threshold>
						<split pos="left">
							<output> 2.0 </output>
						</split>
						<split pos="right">
							<output> 2.0 </output>
						</split>
					</split>
					<split pos="right">
						<feature> 1 </feature>
						<threshold> -0.9391346 </threshold>
						<split pos="left">
							<feature> 22 </feature>
							<threshold> 0.68472147 </threshold>
							<split pos="left">
								<feature> 22 </feature>
								<threshold> -0.029729076 </threshold>
								<split pos="left">
									<output> 2.0 </output>
								</split>
								<split pos="right">
									<output> 2.0 </output>
								</split>
							</split>
							<split pos="right">
								<output> 2.0 </output>
							</split>
						</split>
						<split pos="right">
							<output> -1.9999992847442627 </output>
						</split>
					</split>
				</split>
				<split pos="right">
					<feature> 28 </feature>
					<threshold> -0.008788448 </threshold>
					<split pos="left">
						<output> -2.0 </output>
					</split>
					<split pos="right">
						<feature> 22 </feature>
						<threshold> 0.5061089 </threshold>
						<split pos="left">
							<output> 2.0 </output>
						</split>
						<split pos="right">
							<output> 2.0 </output>
						</split>
					</split>
				</split>
			</split>
		</split>
	</tree>
	<tree id="2" weight="0.1">
		<split>
			<feature> 22 </feature>
			<threshold> -0.04957493 </threshold>
			<split pos="left">
				<output> -1.6712596416473389 </output>
			</split>
			<split pos="right">
				<feature> 1 </feature>
				<threshold> -0.7662201 </threshold>
				<split pos="left">
					<feature> 1 </feature>
					<threshold> -0.9473686 </threshold>
					<split pos="left">
						<feature> 1 </feature>
						<threshold> -0.98853874 </threshold>
						<split pos="left">
							<output> 1.6712782382965088 </output>
						</split>
						<split pos="right">
							<output> 1.6712782382965088 </output>
						</split>
					</split>
					<split pos="right">
						<feature> 1 </feature>
						<threshold> -0.9391346 </threshold>
						<split pos="left">
							<feature> 22 </feature>
							<threshold> 0.68472147 </threshold>
							<split pos="left">
								<feature> 22 </feature>
								<threshold> -0.029729076 </threshold>
								<split pos="left">
									<output> 1.6712782382965088 </output>
								</split>
								<split pos="right">
									<output> 1.6712782382965088 </output>
								</split>
							</split>
							<split pos="right">
								<output> 1.6712782382965088 </output>
							</split>
						</split>
						<split pos="right">
							<output> -1.6703200340270996 </output>
						</split>
					</split>
				</split>
				<split pos="right">
					<feature> 28 </feature>
					<threshold> -0.008788448 </threshold>
					<split pos="left">
						<output> -1.67031991481781 </output>
					</split>
					<split pos="right">
						<feature> 22 </feature>
						<threshold> 0.5061089 </threshold>
						<split pos="left">
							<output> 1.6712783575057983 </output>
						</split>
						<split pos="right">
							<output> 0.0 </output>
						</split>
					</split>
				</split>
			</split>
		</split>
	</tree>
	<tree id="3" weight="0.1">
		<split>
			<feature> 14 </feature>
			<threshold> 0.5476143 </threshold>
			<split pos="left">
				<feature> 1 </feature>
				<threshold> -0.7744541 </threshold>
				<split pos="left">
					<feature> 1 </feature>
					<threshold> -0.9473686 </threshold>
					<split pos="left">
						<output> 1.480549693107605 </output>
					</split>
					<split pos="right">
						<feature> 7 </feature>
						<threshold> -0.453296 </threshold>
						<split pos="left">
							<output> 0.0 </output>
						</split>
						<split pos="right">
							<output> 1.480549693107605 </output>
						</split>
					</split>
				</split>
				<split pos="right">
					<output> -1.4805433750152588 </output>
				</split>
			</split>
			<split pos="right">
				<feature> 1 </feature>
				<threshold> -0.78268814 </threshold>
				<split pos="left">
					<feature> 1 </feature>
					<threshold> -0.9473686 </threshold>
					<split pos="left">
						<output> 1.4805494546890259 </output>
					</split>
					<split pos="right">
						<feature> 1 </feature>
						<threshold> -0.9391346 </threshold>
						<split pos="left">
							<feature> 22 </feature>
							<threshold> 0.68472147 </threshold>
							<split pos="left">
								<output> 1.4805495738983154 </output>
							</split>
							<split pos="right">
								<output> 1.4805495738983154 </output>
							</split>
						</split>
						<split pos="right">
							<output> 0.0 </output>
						</split>
					</split>
				</split>
				<split pos="right">
					<feature> 14 </feature>
					<threshold> 0.5676753 </threshold>
					<split pos="left">
						<output> 1.4805495738983154 </output>
					</split>
					<split pos="right">
						<output> 0.0 </output>
					</split>
				</split>
			</split>
		</split>
	</tree>
	<tree id="4" weight="0.1">
		<split>
			<feature> 22 </feature>
			<threshold> -0.04957493 </threshold>
			<split pos="left">
				<output> -1.3573826551437378 </output>
			</split>
			<split pos="right">
				<feature> 1 </feature>
				<threshold> -0.7662201 </threshold>
				<split pos="left">
					<feature> 22 </feature>
					<threshold> -0.029729076 </threshold>
					<split pos="left">
						<feature> 14 </feature>
						<threshold> -0.5958625 </threshold>
						<split pos="left">
							<output> 1.357387661933899 </output>
						</split>
						<split pos="right">
							<output> 0.0 </output>
						</split>
					</split>
					<split pos="right">
						<feature> 24 </feature>
						<threshold> -0.13090086 </threshold>
						<split pos="left">
							<feature> 16 </feature>
							<threshold> -0.11423674 </threshold>
							<split pos="left">
								<feature> 26 </feature>
								<threshold> -0.5670076 </threshold>
								<split pos="left">
									<output> 1.26145339012146 </output>
								</split>
								<split pos="right">
									<output> 0.0 </output>
								</split>
							</split>
							<split pos="right">
								<output> 1.357387661933899 </output>
							</split>
						</split>
						<split pos="right">
							<output> 1.357387661933899 </output>
						</split>
					</split>
				</split>
				<split pos="right">
					<feature> 28 </feature>
					<threshold> -0.008788448 </threshold>
					<split pos="left">
						<output> -1.3569109439849854 </output>
					</split>
					<split pos="right">
						<feature> 14 </feature>
						<threshold> 0.5676753 </threshold>
						<split pos="left">
							<output> 1.357387661933899 </output>
						</split>
						<split pos="right">
							<output> 0.0 </output>
						</split>
					</split>
				</split>
			</split>
		</split>
	</tree>
	<tree id="5" weight="0.1">
		<split>
			<feature> 7 </feature>
			<threshold> -0.453296 </threshold>
			<split pos="left">
				<feature> 1 </feature>
				<threshold> -0.7744541 </threshold>
				<split pos="left">
					<output> 0.0 </output>
				</split>
				<split pos="right">
					<feature> 7 </feature>
					<threshold> -0.59860736 </threshold>
					<split pos="left">
						<output> 0.0 </output>
					</split>
					<split pos="right">
						<output> -1.27259361743927 </output>
					</split>
				</split>
			</split>
			<split pos="right">
				<feature> 1 </feature>
				<threshold> -0.68387985 </threshold>
				<split pos="left">
					<feature> 16 </feature>
					<threshold> -0.087396234 </threshold>
					<split pos="left">
						<feature> 22 </feature>
						<threshold> -0.029729076 </threshold>
						<split pos="left">
							<output> 1.2725886106491089 </output>
						</split>
						<split pos="right">
							<feature> 14 </feature>
							<threshold> 0.30688235 </threshold>
							<split pos="left">
								<output> 1.2725886106491089 </output>
							</split>
							<split pos="right">
								<output> 1.2725886106491089 </output>
							</split>
						</split>
					</split>
					<split pos="right">
						<feature> 15 </feature>
						<threshold> 0.4758427 </threshold>
						<split pos="left">
							<output> 1.2725884914398193 </output>
						</split>
						<split pos="right">
							<output> 1.2725886106491089 </output>
						</split>
					</split>
				</split>
				<split pos="right">
					<feature> 22 </feature>
					<threshold> 0.5061089 </threshold>
					<split pos="left">
						<output> 1.2725887298583984 </output>
					</split>
					<split pos="right">
						<output> 0.0 </output>
					</split>
				</split>
			</split>
		</split>
	</tree>
	<tree id="6" weight="0.1">
		<split>
			<feature> 7 </feature>
			<threshold> -0.453296 </threshold>
			<split pos="left">
				<feature> 1 </feature>
				<threshold> -0.7744541 </threshold>
				<split pos="left">
					<output> 0.0 </output>
				</split>
				<split pos="right">
					<feature> 7 </feature>
					<threshold> -0.59860736 </threshold>
					<split pos="left">
						<output> 0.0 </output>
					</split>
					<split pos="right">
						<output> -1.2113434076309204 </output>
					</split>
				</split>
			</split>
			<split pos="right">
				<feature> 1 </feature>
				<threshold> -0.78268814 </threshold>
				<split pos="left">
					<feature> 16 </feature>
					<threshold> -0.1544975 </threshold>
					<split pos="left">
						<feature> 13 </feature>
						<threshold> 0.088522345 </threshold>
						<split pos="left">
							<output> 1.2113381624221802 </output>
						</split>
						<split pos="right">
							<output> 1.2113381624221802 </output>
						</split>
					</split>
					<split pos="right">
						<feature> 24 </feature>
						<threshold> -0.13090086 </threshold>
						<split pos="left">
							<feature> 1 </feature>
							<threshold> -1.0050068 </threshold>
							<split pos="left">
								<output> 0.0 </output>
							</split>
							<split pos="right">
								<output> 1.2113381624221802 </output>
							</split>
						</split>
						<split pos="right">
							<output> 1.2113381624221802 </output>
						</split>
					</split>
				</split>
				<split pos="right">
					<feature> 14 </feature>
					<threshold> 0.5676753 </threshold>
					<split pos="left">
						<output> 1.2113380432128906 </output>
					</split>
					<split pos="right">
						<output> 0.0 </output>
					</split>
				</split>
			</split>
		</split>
	</tree>
	<tree id="7" weight="0.1">
		<split>
			<feature> 7 </feature>
			<threshold> -0.453296 </threshold>
			<split pos="left">
				<feature> 1 </feature>
				<threshold> -0.7744541 </threshold>
				<split pos="left">
					<output> 0.0 </output>
				</split>
				<split pos="right">
					<feature> 7 </feature>
					<threshold> -0.59860736 </threshold>
					<split pos="left">
						<output> 0.0 </output>
					</split>
					<split pos="right">
						<output> -1.165859580039978 </output>
					</split>
				</split>
			</split>
			<split pos="right">
				<feature> 1 </feature>
				<threshold> -0.78268814 </threshold>
				<split pos="left">
					<feature> 16 </feature>
					<threshold> -0.087396234 </threshold>
					<split pos="left">
						<feature> 22 </feature>
						<threshold> -0.029729076 </threshold>
						<split pos="left">
							<output> 1.1658698320388794 </output>
						</split>
						<split pos="right">
							<feature> 7 </feature>
							<threshold> -0.4351321 </threshold>
							<split pos="left">
								<output> 1.1658697128295898 </output>
							</split>
							<split pos="right">
								<output> 1.1658697128295898 </output>
							</split>
						</split>
					</split>
					<split pos="right">
						<feature> 15 </feature>
						<threshold> 0.4758427 </threshold>
						<split pos="left">
							<output> 0.0 </output>
						</split>
						<split pos="right">
							<output> 1.1658697128295898 </output>
						</split>
					</split>
				</split>
				<split pos="right">
					<feature> 14 </feature>
					<threshold> 0.5676753 </threshold>
					<split pos="left">
						<output> 1.1658697128295898 </output>
					</split>
					<split pos="right">
						<output> 0.0 </output>
					</split>
				</split>
			</split>
		</split>
	</tree>
	<tree id="8" weight="0.1">
		<split>
			<feature> 15 </feature>
			<threshold> 0.23369306 </threshold>
			<split pos="left">
				<feature> 18 </feature>
				<threshold> -0.7548137 </threshold>
				<split pos="left">
					<output> -1.1313673257827759 </output>
				</split>
				<split pos="right">
					<feature> 1 </feature>
					<threshold> -0.7744541 </threshold>
					<split pos="left">
						<feature> 1 </feature>
						<threshold> -0.98853874 </threshold>
						<split pos="left">
							<output> 1.1313728094100952 </output>
						</split>
						<split pos="right">
							<feature> 6 </feature>
							<threshold> -0.36296082 </threshold>
							<split pos="left">
								<output> 0.0 </output>
							</split>
							<split pos="right">
								<output> 1.1313728094100952 </output>
							</split>
						</split>
					</split>
					<split pos="right">
						<feature> 14 </feature>
						<threshold> 0.5676753 </threshold>
						<split pos="left">
							<feature> 1 </feature>
							<threshold> -0.5933056 </threshold>
							<split pos="left">
								<output> 1.1313728094100952 </output>
							</split>
							<split pos="right">
								<output> 0.0 </output>
							</split>
						</split>
						<split pos="right">
							<output> 0.0 </output>
						</split>
					</split>
				</split>
			</split>
			<split pos="right">
				<feature> 13 </feature>
				<threshold> 0.088522345 </threshold>
				<split pos="left">
					<feature> 1 </feature>
					<threshold> -0.9391346 </threshold>
					<split pos="left">
						<output> 1.1313728094100952 </output>
					</split>
					<split pos="right">
						<output> 0.0 </output>
					</split>
				</split>
				<split pos="right">
					<output> -0.8048396706581116 </output>
				</split>
			</split>
		</split>
	</tree>
	<tree id="9" weight="0.1">
		<split>
			<feature> 15 </feature>
			<threshold> 0.23369306 </threshold>
			<split pos="left">
				<feature> 19 </feature>
				<threshold> -0.7486969 </threshold>
				<split pos="left">
					<output> -1.104772925376892 </output>
				</split>
				<split pos="right">
					<feature> 1 </feature>
					<threshold> -0.7744541 </threshold>
					<split pos="left">
						<feature> 1 </feature>
						<threshold> -0.98853874 </threshold>
						<split pos="left">
							<output> 1.104832410812378 </output>
						</split>
						<split pos="right">
							<feature> 6 </feature>
							<threshold> -0.36296082 </threshold>
							<split pos="left">
								<output> 0.0 </output>
							</split>
							<split pos="right">
								<output> 1.1048319339752197 </output>
							</split>
						</split>
					</split>
					<split pos="right">
						<feature> 14 </feature>
						<threshold> 0.5676753 </threshold>
						<split pos="left">
							<feature> 1 </feature>
							<threshold> -0.5933056 </threshold>
							<split pos="left">
								<output> 1.1048318147659302 </output>
							</split>
							<split pos="right">
								<output> 0.0 </output>
							</split>
						</split>
						<split pos="right">
							<output> 0.0 </output>
						</split>
					</split>
				</split>
			</split>
			<split pos="right">
				<feature> 13 </feature>
				<threshold> 0.088522345 </threshold>
				<split pos="left">
					<feature> 1 </feature>
					<threshold> -0.9391346 </threshold>
					<split pos="left">
						<output> 1.1048318147659302 </output>
					</split>
					<split pos="right">
						<output> 0.0 </output>
					</split>
				</split>
				<split pos="right">
					<output> -1.1081774234771729 </output>
				</split>
			</split>
		</split>
	</tree>
	<tree id="10" weight="0.1">
		<split>
			<feature> 7 </feature>
			<threshold> -0.453296 </threshold>
			<split pos="left">
				<feature> 1 </feature>
				<threshold> -0.7744541 </threshold>
				<split pos="left">
					<output> 0.0 </output>
				</split>
				<split pos="right">
					<feature> 7 </feature>
					<threshold> -0.59860736 </threshold>
					<split pos="left">
						<output> 0.0 </output>
					</split>
					<split pos="right">
						<output> -1.0840706825256348 </output>
					</split>
				</split>
			</split>
			<split pos="right">
				<feature> 20 </feature>
				<threshold> -0.057263598 </threshold>
				<split pos="left">
					<feature> 1 </feature>
					<threshold> -1.0050068 </threshold>
					<split pos="left">
						<output> 1.0840487480163574 </output>
					</split>
					<split pos="right">
						<feature> 22 </feature>
						<threshold> -0.029729076 </threshold>
						<split pos="left">
							<output> 1.084048867225647 </output>
						</split>
						<split pos="right">
							<feature> 13 </feature>
							<threshold> 0.088522345 </threshold>
							<split pos="left">
								<output> 1.084048867225647 </output>
							</split>
							<split pos="right">
								<output> 0.0 </output>
							</split>
						</split>
					</split>
				</split>
				<split pos="right">
					<feature> 27 </feature>
					<threshold> 0.013724439 </threshold>
					<split pos="left">
						<feature> 1 </feature>
						<threshold> -1.0050068 </threshold>
						<split pos="left">
							<output> 0.0 </output>
						</split>
						<split pos="right">
							<output> 1.0840487480163574 </output>
						</split>
					</split>
					<split pos="right">
						<output> 1.094441533088684 </output>
					</split>
				</split>
			</split>
		</split>
	</tree>
	<tree id="11" weight="0.1">
		<split>
			<feature> 7 </feature>
			<threshold> -0.41696817 </threshold>
			<split pos="left">
				<feature> 1 </feature>
				<threshold> -0.7744541 </threshold>
				<split pos="left">
					<feature> 14 </feature>
					<threshold> 0.46737024 </threshold>
					<split pos="left">
						<output> 1.0759546756744385 </output>
					</split>
					<split pos="right">
						<output> 1.0676665306091309 </output>
					</split>
				</split>
				<split pos="right">
					<feature> 7 </feature>
					<threshold> -0.59860736 </threshold>
					<split pos="left">
						<output> 0.0 </output>
					</split>
					<split pos="right">
						<output> -1.0676473379135132 </output>
					</split>
				</split>
			</split>
			<split pos="right">
				<feature> 16 </feature>
				<threshold> -0.127657 </threshold>
				<split pos="left">
					<feature> 1 </feature>
					<threshold> -1.0050068 </threshold>
					<split pos="left">
						<output> 1.0676665306091309 </output>
					</split>
					<split pos="right">
						<feature> 22 </feature>
						<threshold> -0.029729076 </threshold>
						<split pos="left">
							<output> 1.0676665306091309 </output>
						</split>
						<split pos="right">
							<feature> 1 </feature>
							<threshold> -0.9391346 </threshold>
							<split pos="left">
								<output> 0.0 </output>
							</split>
							<split pos="right">
								<feature> 14 </feature>
								<threshold> 0.5676753 </threshold>
								<split pos="left">
									<output> 1.0676665306091309 </output>
								</split>
								<split pos="right">
									<output> 0.0 </output>
								</split>
							</split>
						</split>
					</split>
				</split>
				<split pos="right">
					<output> 1.0759546756744385 </output>
				</split>
			</split>
		</split>
	</tree>
	<tree id="12" weight="0.1">
		<split>
			<feature> 7 </feature>
			<threshold> -0.41696817 </threshold>
			<split pos="left">
				<feature> 1 </feature>
				<threshold> -0.7744541 </threshold>
				<split pos="left">
					<feature> 14 </feature>
					<threshold> 0.46737024 </threshold>
					<split pos="left">
						<output> 1.0613001585006714 </output>
					</split>
					<split pos="right">
						<output> 1.0546563863754272 </output>
					</split>
				</split>
				<split pos="right">
					<feature> 7 </feature>
					<threshold> -0.59860736 </threshold>
					<split pos="left">
						<output> 0.0 </output>
					</split>
					<split pos="right">
						<output> -1.0546443462371826 </output>
					</split>
				</split>
			</split>
			<split pos="right">
				<feature> 19 </feature>
				<threshold> -0.06528344 </threshold>
				<split pos="left">
					<feature> 1 </feature>
					<threshold> -1.0050068 </threshold>
					<split pos="left">
						<output> 1.0546563863754272 </output>
					</split>
					<split pos="right">
						<feature> 22 </feature>
						<threshold> -0.029729076 </threshold>
						<split pos="left">
							<output> 1.0546565055847168 </output>
						</split>
						<split pos="right">
							<feature> 14 </feature>
							<threshold> 0.5676753 </threshold>
							<split pos="left">
								<feature> 1 </feature>
								<threshold> -0.9391346 </threshold>
								<split pos="left">
									<output> 0.0 </output>
								</split>
								<split pos="right">
									<output> 1.0546563863754272 </output>
								</split>
							</split>
							<split pos="right">
								<output> 0.0 </output>
							</split>
						</split>
					</split>
				</split>
				<split pos="right">
					<output> 1.0613001585006714 </output>
				</split>
			</split>
		</split>
	</tree>
	<tree id="13" weight="0.1">
		<split>
			<feature> 7 </feature>
			<threshold> -0.41696817 </threshold>
			<split pos="left">
				<feature> 1 </feature>
				<threshold> -0.7744541 </threshold>
				<split pos="left">
					<feature> 14 </feature>
					<threshold> 0.46737024 </threshold>
					<split pos="left">
						<output> 1.0496100187301636 </output>
					</split>
					<split pos="right">
						<output> 1.0442625284194946 </output>
					</split>
				</split>
				<split pos="right">
					<feature> 7 </feature>
					<threshold> -0.59860736 </threshold>
					<split pos="left">
						<output> 0.0 </output>
					</split>
					<split pos="right">
						<output> -1.044263243675232 </output>
					</split>
				</split>
			</split>
			<split pos="right">
				<feature> 19 </feature>
				<threshold> -0.06528344 </threshold>
				<split pos="left">
					<feature> 1 </feature>
					<threshold> -1.0050068 </threshold>
					<split pos="left">
						<output> 1.0442625284194946 </output>
					</split>
					<split pos="right">
						<feature> 22 </feature>
						<threshold> -0.029729076 </threshold>
						<split pos="left">
							<output> 1.0442625284194946 </output>
						</split>
						<split pos="right">
							<feature> 1 </feature>
							<threshold> -0.9391346 </threshold>
							<split pos="left">
								<output> 0.0 </output>
							</split>
							<split pos="right">
								<feature> 14 </feature>
								<threshold> 0.5676753 </threshold>
								<split pos="left">
									<output> 1.0442625284194946 </output>
								</split>
								<split pos="right">
									<output> 0.0 </output>
								</split>
							</split>
						</split>
					</split>
				</split>
				<split pos="right">
					<output> 1.049609899520874 </output>
				</split>
			</split>
		</split>
	</tree>
	<tree id="14" weight="0.1">
		<split>
			<feature> 7 </feature>
			<threshold> -0.41696817 </threshold>
			<split pos="left">
				<feature> 1 </feature>
				<threshold> -0.7744541 </threshold>
				<split pos="left">
					<feature> 14 </feature>
					<threshold> 0.46737024 </threshold>
					<split pos="left">
						<output> 1.0402379035949707 </output>
					</split>
					<split pos="right">
						<output> 1.0359199047088623 </output>
					</split>
				</split>
				<split pos="right">
					<feature> 7 </feature>
					<threshold> -0.59860736 </threshold>
					<split pos="left">
						<output> 0.0 </output>
					</split>
					<split pos="right">
						<output> -1.0359104871749878 </output>
					</split>
				</split>
			</split>
			<split pos="right">
				<feature> 16 </feature>
				<threshold> -0.127657 </threshold>
				<split pos="left">
					<feature> 5 </feature>
					<threshold> -0.5604853 </threshold>
					<split pos="left">
						<feature> 22 </feature>
						<threshold> -0.029729076 </threshold>
						<split pos="left">
							<output> 1.0359199047088623 </output>
						</split>
						<split pos="right">
							<feature> 1 </feature>
							<threshold> -0.9391346 </threshold>
							<split pos="left">
								<output> 0.0 </output>
							</split>
							<split pos="right">
								<feature> 14 </feature>
								<threshold> 0.5676753 </threshold>
								<split pos="left">
									<output> 1.0359199047088623 </output>
								</split>
								<split pos="right">
									<output> 0.0 </output>
								</split>
							</split>
						</split>
					</split>
					<split pos="right">
						<output> 1.0359199047088623 </output>
					</split>
				</split>
				<split pos="right">
					<output> 0.0 </output>
				</split>
			</split>
		</split>
	</tree>
	<tree id="15" weight="0.1">
		<split>
			<feature> 7 </feature>
			<threshold> -0.41696817 </threshold>
			<split pos="left">
				<feature> 1 </feature>
				<threshold> -0.7744541 </threshold>
				<split pos="left">
					<feature> 14 </feature>
					<threshold> 0.46737024 </threshold>
					<split pos="left">
						<output> 1.0326941013336182 </output>
					</split>
					<split pos="right">
						<output> 1.029198169708252 </output>
					</split>
				</split>
				<split pos="right">
					<feature> 7 </feature>
					<threshold> -0.59860736 </threshold>
					<split pos="left">
						<output> 0.0 </output>
					</split>
					<split pos="right">
						<output> -1.0292083024978638 </output>
					</split>
				</split>
			</split>
			<split pos="right">
				<feature> 16 </feature>
				<threshold> -0.127657 </threshold>
				<split pos="left">
					<feature> 1 </feature>
					<threshold> -1.0050068 </threshold>
					<split pos="left">
						<output> 1.0291982889175415 </output>
					</split>
					<split pos="right">
						<feature> 22 </feature>
						<threshold> -0.029729076 </threshold>
						<split pos="left">
							<output> 1.0291982889175415 </output>
						</split>
						<split pos="right">
							<feature> 13 </feature>
							<threshold> -0.10105431 </threshold>
							<split pos="left">
								<feature> 14 </feature>
								<threshold> 0.5676753 </threshold>
								<split pos="left">
									<output> 1.0291982889175415 </output>
								</split>
								<split pos="right">
									<output> 0.0 </output>
								</split>
							</split>
							<split pos="right">
								<output> 0.0 </output>
							</split>
						</split>
					</split>
				</split>
				<split pos="right">
					<output> 0.0 </output>
				</split>
			</split>
		</split>
	</tree>
	<tree id="16" weight="0.1">
		<split>
			<feature> 7 </feature>
			<threshold> -0.41696817 </threshold>
			<split pos="left">
				<feature> 1 </feature>
				<threshold> -0.7744541 </threshold>
				<split pos="left">
					<output> 1.0237704515457153 </output>
				</split>
				<split pos="right">
					<feature> 7 </feature>
					<threshold> -0.59860736 </threshold>
					<split pos="left">
						<output> 0.0 </output>
					</split>
					<split pos="right">
						<feature> 20 </feature>
						<threshold> -0.7520029 </threshold>
						<split pos="left">
							<output> -1.023758053779602 </output>
						</split>
						<split pos="right">
							<output> 0.0 </output>
						</split>
					</split>
				</split>
			</split>
			<split pos="right">
				<feature> 16 </feature>
				<threshold> -0.127657 </threshold>
				<split pos="left">
					<feature> 1 </feature>
					<threshold> -1.0050068 </threshold>
					<split pos="left">
						<output> 1.0237665176391602 </output>
					</split>
					<split pos="right">
						<feature> 22 </feature>
						<threshold> -0.029729076 </threshold>
						<split pos="left">
							<output> 1.0237663984298706 </output>
						</split>
						<split pos="right">
							<feature> 13 </feature>
							<threshold> -0.22743875 </threshold>
							<split pos="left">
								<feature> 14 </feature>
								<threshold> 0.5676753 </threshold>
								<split pos="left">
									<output> 1.0237663984298706 </output>
								</split>
								<split pos="right">
									<output> 0.0 </output>
								</split>
							</split>
							<split pos="right">
								<output> 0.0 </output>
							</split>
						</split>
					</split>
				</split>
				<split pos="right">
					<output> 0.0 </output>
				</split>
			</split>
		</split>
	</tree>
	<tree id="17" weight="0.1">
		<split>
			<feature> 7 </feature>
			<threshold> -0.453296 </threshold>
			<split pos="left">
				<feature> 1 </feature>
				<threshold> -0.7744541 </threshold>
				<split pos="left">
					<output> 0.0 </output>
				</split>
				<split pos="right">
					<feature> 7 </feature>
					<threshold> -0.59860736 </threshold>
					<split pos="left">
						<output> 0.0 </output>
					</split>
					<split pos="right">
						<output> -1.0193760395050049 </output>
					</split>
				</split>
			</split>
			<split pos="right">
				<feature> 24 </feature>
				<threshold> -0.13090086 </threshold>
				<split pos="left">
					<feature> 1 </feature>
					<threshold> -1.0050068 </threshold>
					<split pos="left">
						<output> 0.0 </output>
					</split>
					<split pos="right">
						<output> 1.0193660259246826 </output>
					</split>
				</split>
				<split pos="right">
					<feature> 16 </feature>
					<threshold> -0.127657 </threshold>
					<split pos="left">
						<feature> 1 </feature>
						<threshold> -1.0050068 </threshold>
						<split pos="left">
							<output> 1.0193660259246826 </output>
						</split>
						<split pos="right">
							<feature> 22 </feature>
							<threshold> -0.029729076 </threshold>
							<split pos="left">
								<output> 1.019365906715393 </output>
							</split>
							<split pos="right">
								<feature> 1 </feature>
								<threshold> -0.9391346 </threshold>
								<split pos="left">
									<output> 0.0 </output>
								</split>
								<split pos="right">
									<output> 1.0193660259246826 </output>
								</split>
							</split>
						</split>
					</split>
					<split pos="right">
						<output> 1.0216771364212036 </output>
					</split>
				</split>
			</split>
		</split>
	</tree>
	<tree id="18" weight="0.1">
		<split>
			<feature> 7 </feature>
			<threshold> -0.453296 </threshold>
			<split pos="left">
				<feature> 1 </feature>
				<threshold> -0.7744541 </threshold>
				<split pos="left">
					<output> 0.0 </output>
				</split>
				<split pos="right">
					<feature> 7 </feature>
					<threshold> -0.59860736 </threshold>
					<split pos="left">
						<output> 0.0 </output>
					</split>
					<split pos="right">
						<output> -1.0157886743545532 </output>
					</split>
				</split>
			</split>
			<split pos="right">
				<feature> 24 </feature>
				<threshold> -0.13090086 </threshold>
				<split pos="left">
					<feature> 1 </feature>
					<threshold> -1.0050068 </threshold>
					<split pos="left">
						<output> 0.0 </output>
					</split>
					<split pos="right">
						<output> 1.015794277191162 </output>
					</split>
				</split>
				<split pos="right">
					<feature> 16 </feature>
					<threshold> -0.127657 </threshold>
					<split pos="left">
						<feature> 1 </feature>
						<threshold> -1.0050068 </threshold>
						<split pos="left">
							<output> 1.015794277191162 </output>
						</split>
						<split pos="right">
							<feature> 22 </feature>
							<threshold> -0.029729076 </threshold>
							<split pos="left">
								<output> 1.015794277191162 </output>
							</split>
							<split pos="right">
								<feature> 13 </feature>
								<threshold> -0.10105431 </threshold>
								<split pos="left">
									<output> 1.015794277191162 </output>
								</split>
								<split pos="right">
									<output> 0.0 </output>
								</split>
							</split>
						</split>
					</split>
					<split pos="right">
						<output> 1.0176751613616943 </output>
					</split>
				</split>
			</split>
		</split>
	</tree>
	<tree id="19" weight="0.1">
		<split>
			<feature> 7 </feature>
			<threshold> -0.453296 </threshold>
			<split pos="left">
				<feature> 1 </feature>
				<threshold> -0.7744541 </threshold>
				<split pos="left">
					<output> 0.0 </output>
				</split>
				<split pos="right">
					<feature> 7 </feature>
					<threshold> -0.59860736 </threshold>
					<split pos="left">
						<output> 0.0 </output>
					</split>
					<split pos="right">
						<output> -1.012892723083496 </output>
					</split>
				</split>
			</split>
			<split pos="right">
				<feature> 24 </feature>
				<threshold> -0.13090086 </threshold>
				<split pos="left">
					<feature> 1 </feature>
					<threshold> -1.0050068 </threshold>
					<split pos="left">
						<output> 0.0 </output>
					</split>
					<split pos="right">
						<output> 1.0128904581069946 </output>
					</split>
				</split>
				<split pos="right">
					<feature> 18 </feature>
					<threshold> -0.093746595 </threshold>
					<split pos="left">
						<feature> 5 </feature>
						<threshold> -0.5604853 </threshold>
						<split pos="left">
							<feature> 22 </feature>
							<threshold> -0.029729076 </threshold>
							<split pos="left">
								<output> 1.0128905773162842 </output>
							</split>
							<split pos="right">
								<feature> 1 </feature>
								<threshold> -0.9391346 </threshold>
								<split pos="left">
									<output> 0.0 </output>
								</split>
								<split pos="right">
									<output> 1.0128904581069946 </output>
								</split>
							</split>
						</split>
						<split pos="right">
							<output> 1.0128904581069946 </output>
						</split>
					</split>
					<split pos="right">
						<output> 1.0144227743148804 </output>
					</split>
				</split>
			</split>
		</split>
	</tree>
	<tree id="20" weight="0.1">
		<split>
			<feature> 7 </feature>
			<threshold> -0.453296 </threshold>
			<split pos="left">
				<feature> 1 </feature>
				<threshold> -0.7744541 </threshold>
				<split pos="left">
					<output> 0.0 </output>
				</split>
				<split pos="right">
					<feature> 7 </feature>
					<threshold> -0.59860736 </threshold>
					<split pos="left">
						<output> 0.0 </output>
					</split>
					<split pos="right">
						<output> -1.0105319023132324 </output>
					</split>
				</split>
			</split>
			<split pos="right">
				<feature> 24 </feature>
				<threshold> -0.13090086 </threshold>
				<split pos="left">
					<feature> 1 </feature>
					<threshold> -1.0050068 </threshold>
					<split pos="left">
						<output> 0.0 </output>
					</split>
					<split pos="right">
						<output> 1.0105266571044922 </output>
					</split>
				</split>
				<split pos="right">
					<feature> 16 </feature>
					<threshold> -0.087396234 </threshold>
					<split pos="left">
						<feature> 5 </feature>
						<threshold> -0.5604853 </threshold>
						<split pos="left">
							<feature> 22 </feature>
							<threshold> -0.029729076 </threshold>
							<split pos="left">
								<output> 1.0105266571044922 </output>
							</split>
							<split pos="right">
								<feature> 1 </feature>
								<threshold> -0.9391346 </threshold>
								<split pos="left">
									<output> 0.0 </output>
								</split>
								<split pos="right">
									<output> 1.0105267763137817 </output>
								</split>
							</split>
						</split>
						<split pos="right">
							<output> 1.0105266571044922 </output>
						</split>
					</split>
					<split pos="right">
						<output> 1.0117762088775635 </output>
					</split>
				</split>
			</split>
		</split>
	</tree>
	<tree id="21" weight="0.1">
		<split>
			<feature> 7 </feature>
			<threshold> -0.453296 </threshold>
			<split pos="left">
				<feature> 1 </feature>
				<threshold> -0.7744541 </threshold>
				<split pos="left">
					<output> 0.0 </output>
				</split>
				<split pos="right">
					<feature> 7 </feature>
					<threshold> -0.59860736 </threshold>
					<split pos="left">
						<output> 0.0 </output>
					</split>
					<split pos="right">
						<output> -1.0086114406585693 </output>
					</split>
				</split>
			</split>
			<split pos="right">
				<feature> 24 </feature>
				<threshold> -0.13090086 </threshold>
				<split pos="left">
					<feature> 1 </feature>
					<threshold> -1.0050068 </threshold>
					<split pos="left">
						<output> 0.0 </output>
					</split>
					<split pos="right">
						<output> 1.0086003541946411 </output>
					</split>
				</split>
				<split pos="right">
					<feature> 16 </feature>
					<threshold> -0.127657 </threshold>
					<split pos="left">
						<feature> 5 </feature>
						<threshold> -0.5604853 </threshold>
						<split pos="left">
							<feature> 22 </feature>
							<threshold> -0.029729076 </threshold>
							<split pos="left">
								<output> 1.0086003541946411 </output>
							</split>
							<split pos="right">
								<feature> 13 </feature>
								<threshold> -0.22743875 </threshold>
								<split pos="left">
									<output> 1.0086004734039307 </output>
								</split>
								<split pos="right">
									<output> 0.0 </output>
								</split>
							</split>
						</split>
						<split pos="right">
							<output> 1.0086004734039307 </output>
						</split>
					</split>
					<split pos="right">
						<output> 1.0096200704574585 </output>
					</split>
				</split>
			</split>
		</split>
	</tree>
	<tree id="22" weight="0.1">
		<split>
			<feature> 22 </feature>
			<threshold> 0.26795876 </threshold>
			<split pos="left">
				<feature> 1 </feature>
				<threshold> -0.7744541 </threshold>
				<split pos="left">
					<feature> 1 </feature>
					<threshold> -0.9473686 </threshold>
					<split pos="left">
						<output> 1.007861852645874 </output>
					</split>
					<split pos="right">
						<feature> 1 </feature>
						<threshold> -0.9391346 </threshold>
						<split pos="left">
							<output> 1.0070292949676514 </output>
						</split>
						<split pos="right">
							<output> 0.0 </output>
						</split>
					</split>
				</split>
				<split pos="right">
					<output> -1.0070449113845825 </output>
				</split>
			</split>
			<split pos="right">
				<feature> 16 </feature>
				<threshold> -0.087396234 </threshold>
				<split pos="left">
					<feature> 19 </feature>
					<threshold> -0.038998313 </threshold>
					<split pos="left">
						<feature> 24 </feature>
						<threshold> -0.03892722 </threshold>
						<split pos="left">
							<feature> 1 </feature>
							<threshold> -0.9061985 </threshold>
							<split pos="left">
								<output> 0.0 </output>
							</split>
							<split pos="right">
								<feature> 14 </feature>
								<threshold> 0.5676753 </threshold>
								<split pos="left">
									<output> 1.0070292949676514 </output>
								</split>
								<split pos="right">
									<output> 0.0 </output>
								</split>
							</split>
						</split>
						<split pos="right">
							<output> 1.007029414176941 </output>
						</split>
					</split>
					<split pos="right">
						<output> 1.007029414176941 </output>
					</split>
				</split>
				<split pos="right">
					<output> 0.0 </output>
				</split>
			</split>
		</split>
	</tree>
	<tree id="23" weight="0.1">
		<split>
			<feature> 22 </feature>
			<threshold> 0.26795876 </threshold>
			<split pos="left">
				<feature> 1 </feature>
				<threshold> -0.7744541 </threshold>
				<split pos="left">
					<feature> 1 </feature>
					<threshold> -0.9473686 </threshold>
					<split pos="left">
						<output> 1.0064271688461304 </output>
					</split>
					<split pos="right">
						<feature> 1 </feature>
						<threshold> -0.9391346 </threshold>
						<split pos="left">
							<output> 1.0057469606399536 </output>
						</split>
						<split pos="right">
							<output> 0.0 </output>
						</split>
					</split>
				</split>
				<split pos="right">
					<output> -1.0057462453842163 </output>
				</split>
			</split>
			<split pos="right">
				<feature> 19 </feature>
				<threshold> 4.2937137E-4 </threshold>
				<split pos="left">
					<feature> 16 </feature>
					<threshold> -0.11423674 </threshold>
					<split pos="left">
						<feature> 24 </feature>
						<threshold> -0.03892722 </threshold>
						<split pos="left">
							<feature> 1 </feature>
							<threshold> -0.9061985 </threshold>
							<split pos="left">
								<output> 0.0 </output>
							</split>
							<split pos="right">
								<feature> 14 </feature>
								<threshold> 0.5676753 </threshold>
								<split pos="left">
									<output> 1.0057470798492432 </output>
								</split>
								<split pos="right">
									<output> 0.0 </output>
								</split>
							</split>
						</split>
						<split pos="right">
							<output> 1.0057469606399536 </output>
						</split>
					</split>
					<split pos="right">
						<output> 1.0057469606399536 </output>
					</split>
				</split>
				<split pos="right">
					<output> 0.0 </output>
				</split>
			</split>
		</split>
	</tree>
	<tree id="24" weight="0.1">
		<split>
			<feature> 22 </feature>
			<threshold> 0.26795876 </threshold>
			<split pos="left">
				<feature> 1 </feature>
				<threshold> -0.7744541 </threshold>
				<split pos="left">
					<feature> 1 </feature>
					<threshold> -0.9473686 </threshold>
					<split pos="left">
						<output> 1.0052556991577148 </output>
					</split>
					<split pos="right">
						<output> 1.004699945449829 </output>
					</split>
				</split>
				<split pos="right">
					<feature> 7 </feature>
					<threshold> -0.59860736 </threshold>
					<split pos="left">
						<output> 0.0 </output>
					</split>
					<split pos="right">
						<output> -1.0047032833099365 </output>
					</split>
				</split>
			</split>
			<split pos="right">
				<feature> 16 </feature>
				<threshold> -0.087396234 </threshold>
				<split pos="left">
					<feature> 16 </feature>
					<threshold> -0.11423674 </threshold>
					<split pos="left">
						<feature> 24 </feature>
						<threshold> -0.03892722 </threshold>
						<split pos="left">
							<feature> 1 </feature>
							<threshold> -0.9061985 </threshold>
							<split pos="left">
								<output> 0.0 </output>
							</split>
							<split pos="right">
								<feature> 14 </feature>
								<threshold> 0.5676753 </threshold>
								<split pos="left">
									<output> 1.0046998262405396 </output>
								</split>
								<split pos="right">
									<output> 0.0 </output>
								</split>
							</split>
						</split>
						<split pos="right">
							<output> 1.0046998262405396 </output>
						</split>
					</split>
					<split pos="right">
						<output> 1.0046998262405396 </output>
					</split>
				</split>
				<split pos="right">
					<output> 0.0 </output>
				</split>
			</split>
		</split>
	</tree>
	<tree id="25" weight="0.1">
		<split>
			<feature> 22 </feature>
			<threshold> 0.26795876 </threshold>
			<split pos="left">
				<feature> 1 </feature>
				<threshold> -0.7744541 </threshold>
				<split pos="left">
					<feature> 1 </feature>
					<threshold> -0.9473686 </threshold>
					<split pos="left">
						<output> 1.0042989253997803 </output>
					</split>
					<split pos="right">
						<feature> 1 </feature>
						<threshold> -0.9391346 </threshold>
						<split pos="left">
							<output> 1.0038442611694336 </output>
						</split>
						<split pos="right">
							<output> 0.0 </output>
						</split>
					</split>
				</split>
				<split pos="right">
					<output> -1.0038282871246338 </output>
				</split>
			</split>
			<split pos="right">
				<feature> 16 </feature>
				<threshold> -0.087396234 </threshold>
				<split pos="left">
					<feature> 19 </feature>
					<threshold> -0.038998313 </threshold>
					<split pos="left">
						<feature> 24 </feature>
						<threshold> -0.03892722 </threshold>
						<split pos="left">
							<feature> 1 </feature>
							<threshold> -0.9061985 </threshold>
							<split pos="left">
								<output> 0.0 </output>
							</split>
							<split pos="right">
								<feature> 14 </feature>
								<threshold> 0.5676753 </threshold>
								<split pos="left">
									<output> 1.0038442611694336 </output>
								</split>
								<split pos="right">
									<output> 0.0 </output>
								</split>
							</split>
						</split>
						<split pos="right">
							<output> 1.0038442611694336 </output>
						</split>
					</split>
					<split pos="right">
						<output> 1.0038442611694336 </output>
					</split>
				</split>
				<split pos="right">
					<output> 0.0 </output>
				</split>
			</split>
		</split>
	</tree>
	<tree id="26" weight="0.1">
		<split>
			<feature> 22 </feature>
			<threshold> 0.26795876 </threshold>
			<split pos="left">
				<feature> 1 </feature>
				<threshold> -0.7744541 </threshold>
				<split pos="left">
					<feature> 1 </feature>
					<threshold> -0.9473686 </threshold>
					<split pos="left">
						<output> 1.003516674041748 </output>
					</split>
					<split pos="right">
						<feature> 1 </feature>
						<threshold> -0.9391346 </threshold>
						<split pos="left">
							<output> 1.0031450986862183 </output>
						</split>
						<split pos="right">
							<output> 0.0 </output>
						</split>
					</split>
				</split>
				<split pos="right">
					<output> -1.0031583309173584 </output>
				</split>
			</split>
			<split pos="right">
				<feature> 16 </feature>
				<threshold> -0.087396234 </threshold>
				<split pos="left">
					<feature> 16 </feature>
					<threshold> -0.11423674 </threshold>
					<split pos="left">
						<feature> 24 </feature>
						<threshold> -0.03892722 </threshold>
						<split pos="left">
							<feature> 1 </feature>
							<threshold> -0.9061985 </threshold>
							<split pos="left">
								<output> 0.0 </output>
							</split>
							<split pos="right">
								<feature> 14 </feature>
								<threshold> 0.5676753 </threshold>
								<split pos="left">
									<output> 1.0031449794769287 </output>
								</split>
								<split pos="right">
									<output> 0.0 </output>
								</split>
							</split>
						</split>
						<split pos="right">
							<output> 1.0031448602676392 </output>
						</split>
					</split>
					<split pos="right">
						<output> 1.0031449794769287 </output>
					</split>
				</split>
				<split pos="right">
					<output> 0.0 </output>
				</split>
			</split>
		</split>
	</tree>
	<tree id="27" weight="0.1">
		<split>
			<feature> 7 </feature>
			<threshold> -0.453296 </threshold>
			<split pos="left">
				<feature> 1 </feature>
				<threshold> -0.7744541 </threshold>
				<split pos="left">
					<output> 0.0 </output>
				</split>
				<split pos="right">
					<feature> 7 </feature>
					<threshold> -0.59860736 </threshold>
					<split pos="left">
						<output> 0.0 </output>
					</split>
					<split pos="right">
						<output> -1.0025677680969238 </output>
					</split>
				</split>
			</split>
			<split pos="right">
				<feature> 24 </feature>
				<threshold> -0.13090086 </threshold>
				<split pos="left">
					<feature> 1 </feature>
					<threshold> -1.0050068 </threshold>
					<split pos="left">
						<output> 0.0 </output>
					</split>
					<split pos="right">
						<output> 1.0025732517242432 </output>
					</split>
				</split>
				<split pos="right">
					<feature> 18 </feature>
					<threshold> -0.093746595 </threshold>
					<split pos="left">
						<feature> 1 </feature>
						<threshold> -1.0050068 </threshold>
						<split pos="left">
							<output> 1.0025733709335327 </output>
						</split>
						<split pos="right">
							<feature> 22 </feature>
							<threshold> -0.029729076 </threshold>
							<split pos="left">
								<output> 1.0025733709335327 </output>
							</split>
							<split pos="right">
								<feature> 13 </feature>
								<threshold> -0.22743875 </threshold>
								<split pos="left">
									<output> 1.0025732517242432 </output>
								</split>
								<split pos="right">
									<output> 0.0 </output>
								</split>
							</split>
						</split>
					</split>
					<split pos="right">
						<output> 1.0028772354125977 </output>
					</split>
				</split>
			</split>
		</split>
	</tree>
	<tree id="28" weight="0.1">
		<split>
			<feature> 7 </feature>
			<threshold> -0.453296 </threshold>
			<split pos="left">
				<feature> 1 </feature>
				<threshold> -0.7744541 </threshold>
				<split pos="left">
					<output> 0.0 </output>
				</split>
				<split pos="right">
					<feature> 7 </feature>
					<threshold> -0.59860736 </threshold>
					<split pos="left">
						<output> 0.0 </output>
					</split>
					<split pos="right">
						<output> -1.002111792564392 </output>
					</split>
				</split>
			</split>
			<split pos="right">
				<feature> 24 </feature>
				<threshold> -0.13090086 </threshold>
				<split pos="left">
					<feature> 1 </feature>
					<threshold> -1.0050068 </threshold>
					<split pos="left">
						<output> 0.0 </output>
					</split>
					<split pos="right">
						<output> 1.0021058320999146 </output>
					</split>
				</split>
				<split pos="right">
					<feature> 16 </feature>
					<threshold> -0.127657 </threshold>
					<split pos="left">
						<feature> 1 </feature>
						<threshold> -1.0050068 </threshold>
						<split pos="left">
							<output> 1.0021058320999146 </output>
						</split>
						<split pos="right">
							<feature> 22 </feature>
							<threshold> -0.029729076 </threshold>
							<split pos="left">
								<output> 1.002105712890625 </output>
							</split>
							<split pos="right">
								<feature> 13 </feature>
								<threshold> -0.22743875 </threshold>
								<split pos="left">
									<output> 1.002105712890625 </output>
								</split>
								<split pos="right">
									<output> 0.0 </output>
								</split>
							</split>
						</split>
					</split>
					<split pos="right">
						<output> 1.0023545026779175 </output>
					</split>
				</split>
			</split>
		</split>
	</tree>
	<tree id="29" weight="0.1">
		<split>
			<feature> 7 </feature>
			<threshold> -0.453296 </threshold>
			<split pos="left">
				<feature> 1 </feature>
				<threshold> -0.7744541 </threshold>
				<split pos="left">
					<output> 0.0 </output>
				</split>
				<split pos="right">
					<feature> 7 </feature>
					<threshold> -0.59860736 </threshold>
					<split pos="left">
						<output> 0.0 </output>
					</split>
					<split pos="right">
						<output> -1.0017234086990356 </output>
					</split>
				</split>
			</split>
			<split pos="right">
				<feature> 24 </feature>
				<threshold> -0.13090086 </threshold>
				<split pos="left">
					<feature> 1 </feature>
					<threshold> -1.0050068 </threshold>
					<split pos="left">
						<output> 0.0 </output>
					</split>
					<split pos="right">
						<output> 1.001723289489746 </output>
					</split>
				</split>
				<split pos="right">
					<feature> 18 </feature>
					<threshold> -0.093746595 </threshold>
					<split pos="left">
						<feature> 1 </feature>
						<threshold> -1.0050068 </threshold>
						<split pos="left">
							<output> 1.0017234086990356 </output>
						</split>
						<split pos="right">
							<feature> 22 </feature>
							<threshold> -0.029729076 </threshold>
							<split pos="left">
								<output> 1.0017234086990356 </output>
							</split>
							<split pos="right">
								<feature> 13 </feature>
								<threshold> 0.088522345 </threshold>
								<split pos="left">
									<output> 1.001723289489746 </output>
								</split>
								<split pos="right">
									<output> 0.0 </output>
								</split>
							</split>
						</split>
					</split>
					<split pos="right">
						<output> 1.0019268989562988 </output>
					</split>
				</split>
			</split>
		</split>
	</tree>
	<tree id="30" weight="0.1">
		<split>
			<feature> 7 </feature>
			<threshold> -0.453296 </threshold>
			<split pos="left">
				<feature> 1 </feature>
				<threshold> -0.7744541 </threshold>
				<split pos="left">
					<output> 0.0 </output>
				</split>
				<split pos="right">
					<feature> 7 </feature>
					<threshold> -0.59860736 </threshold>
					<split pos="left">
						<output> 0.0 </output>
					</split>
					<split pos="right">
						<output> -1.0013960599899292 </output>
					</split>
				</split>
			</split>
			<split pos="right">
				<feature> 24 </feature>
				<threshold> -0.13090086 </threshold>
				<split pos="left">
					<feature> 1 </feature>
					<threshold> -1.0050068 </threshold>
					<split pos="left">
						<output> 0.0 </output>
					</split>
					<split pos="right">
						<output> 1.0014104843139648 </output>
					</split>
				</split>
				<split pos="right">
					<feature> 16 </feature>
					<threshold> -0.087396234 </threshold>
					<split pos="left">
						<feature> 1 </feature>
						<threshold> -1.0050068 </threshold>
						<split pos="left">
							<output> 1.0014104843139648 </output>
						</split>
						<split pos="right">
							<feature> 22 </feature>
							<threshold> -0.029729076 </threshold>
							<split pos="left">
								<output> 1.0014104843139648 </output>
							</split>
							<split pos="right">
								<feature> 13 </feature>
								<threshold> -0.22743875 </threshold>
								<split pos="left">
									<output> 1.0014103651046753 </output>
								</split>
								<split pos="right">
									<output> 0.0 </output>
								</split>
							</split>
						</split>
					</split>
					<split pos="right">
						<output> 1.0015769004821777 </output>
					</split>
				</split>
			</split>
		</split>
	</tree>
	<tree id="31" weight="0.1">
		<split>
			<feature> 7 </feature>
			<threshold> -0.453296 </threshold>
			<split pos="left">
				<feature> 1 </feature>
				<threshold> -0.7744541 </threshold>
				<split pos="left">
					<output> 0.0 </output>
				</split>
				<split pos="right">
					<feature> 7 </feature>
					<threshold> -0.59860736 </threshold>
					<split pos="left">
						<output> 0.0 </output>
					</split>
					<split pos="right">
						<output> -1.001168966293335 </output>
					</split>
				</split>
			</split>
			<split pos="right">
				<feature> 24 </feature>
				<threshold> -0.13090086 </threshold>
				<split pos="left">
					<feature> 1 </feature>
					<threshold> -1.0050068 </threshold>
					<split pos="left">
						<output> 0.0 </output>
					</split>
					<split pos="right">
						<output> 1.0011544227600098 </output>
					</split>
				</split>
				<split pos="right">
					<feature> 19 </feature>
					<threshold> -0.06528344 </threshold>
					<split pos="left">
						<feature> 5 </feature>
						<threshold> -0.5604853 </threshold>
						<split pos="left">
							<feature> 22 </feature>
							<threshold> -0.029729076 </threshold>
							<split pos="left">
								<output> 1.0011545419692993 </output>
							</split>
							<split pos="right">
								<feature> 13 </feature>
								<threshold> -0.22743875 </threshold>
								<split pos="left">
									<output> 1.0011544227600098 </output>
								</split>
								<split pos="right">
									<output> 0.0 </output>
								</split>
							</split>
						</split>
						<split pos="right">
							<output> 1.0011544227600098 </output>
						</split>
					</split>
					<split pos="right">
						<output> 1.0012906789779663 </output>
					</split>
				</split>
			</split>
		</split>
	</tree>
	<tree id="32" weight="0.1">
		<split>
			<feature> 7 </feature>
			<threshold> -0.453296 </threshold>
			<split pos="left">
				<feature> 1 </feature>
				<threshold> -0.7744541 </threshold>
				<split pos="left">
					<output> 0.0 </output>
				</split>
				<split pos="right">
					<feature> 7 </feature>
					<threshold> -0.59860736 </threshold>
					<split pos="left">
						<output> 0.0 </output>
					</split>
					<split pos="right">
						<output> -1.000938057899475 </output>
					</split>
				</split>
			</split>
			<split pos="right">
				<feature> 24 </feature>
				<threshold> -0.13090086 </threshold>
				<split pos="left">
					<feature> 1 </feature>
					<threshold> -1.0050068 </threshold>
					<split pos="left">
						<output> 0.0 </output>
					</split>
					<split pos="right">
						<output> 1.000944972038269 </output>
					</split>
				</split>
				<split pos="right">
					<feature> 16 </feature>
					<threshold> -0.127657 </threshold>
					<split pos="left">
						<feature> 1 </feature>
						<threshold> -1.0050068 </threshold>
						<split pos="left">
							<output> 1.000944972038269 </output>
						</split>
						<split pos="right">
							<feature> 22 </feature>
							<threshold> -0.029729076 </threshold>
							<split pos="left">
								<output> 1.000944972038269 </output>
							</split>
							<split pos="right">
								<feature> 13 </feature>
								<threshold> 0.088522345 </threshold>
								<split pos="left">
									<output> 1.0009450912475586 </output>
								</split>
								<split pos="right">
									<output> 0.0 </output>
								</split>
							</split>
						</split>
					</split>
					<split pos="right">
						<output> 1.0010565519332886 </output>
					</split>
				</split>
			</split>
		</split>
	</tree>
	<tree id="33" weight="0.1">
		<split>
			<feature> 7 </feature>
			<threshold> -0.453296 </threshold>
			<split pos="left">
				<feature> 1 </feature>
				<threshold> -0.7744541 </threshold>
				<split pos="left">
					<output> 0.0 </output>
				</split>
				<split pos="right">
					<feature> 7 </feature>
					<threshold> -0.59860736 </threshold>
					<split pos="left">
						<output> 0.0 </output>
					</split>
					<split pos="right">
						<output> -1.00076425075531 </output>
					</split>
				</split>
			</split>
			<split pos="right">
				<feature> 24 </feature>
				<threshold> -0.13090086 </threshold>
				<split pos="left">
					<feature> 1 </feature>
					<threshold> -1.0050068 </threshold>
					<split pos="left">
						<output> 0.0 </output>
					</split>
					<split pos="right">
						<output> 1.000773549079895 </output>
					</split>
				</split>
				<split pos="right">
					<feature> 16 </feature>
					<threshold> -0.087396234 </threshold>
					<split pos="left">
						<feature> 1 </feature>
						<threshold> -1.0050068 </threshold>
						<split pos="left">
							<output> 1.000773549079895 </output>
						</split>
						<split pos="right">
							<feature> 22 </feature>
							<threshold> -0.029729076 </threshold>
							<split pos="left">
								<output> 1.000773549079895 </output>
							</split>
							<split pos="right">
								<feature> 13 </feature>
								<threshold> 0.088522345 </threshold>
								<split pos="left">
									<output> 1.0007734298706055 </output>
								</split>
								<split pos="right">
									<output> 0.0 </output>
								</split>
							</split>
						</split>
					</split>
					<split pos="right">
						<output> 1.000864863395691 </output>
					</split>
				</split>
			</split>
		</split>
	</tree>
	<tree id="34" weight="0.1">
		<split>
			<feature> 7 </feature>
			<threshold> -0.453296 </threshold>
			<split pos="left">
				<feature> 1 </feature>
				<threshold> -0.7744541 </threshold>
				<split pos="left">
					<output> 0.0 </output>
				</split>
				<split pos="right">
					<feature> 7 </feature>
					<threshold> -0.59860736 </threshold>
					<split pos="left">
						<output> 0.0 </output>
					</split>
					<split pos="right">
						<output> -1.000633716583252 </output>
					</split>
				</split>
			</split>
			<split pos="right">
				<feature> 24 </feature>
				<threshold> -0.13090086 </threshold>
				<split pos="left">
					<feature> 1 </feature>
					<threshold> -1.0050068 </threshold>
					<split pos="left">
						<output> 0.0 </output>
					</split>
					<split pos="right">
						<output> 1.0006332397460938 </output>
					</split>
				</split>
				<split pos="right">
					<feature> 16 </feature>
					<threshold> -0.087396234 </threshold>
					<split pos="left">
						<feature> 1 </feature>
						<threshold> -1.0050068 </threshold>
						<split pos="left">
							<output> 1.0006332397460938 </output>
						</split>
						<split pos="right">
							<feature> 22 </feature>
							<threshold> -0.029729076 </threshold>
							<split pos="left">
								<output> 1.0006332397460938 </output>
							</split>
							<split pos="right">
								<feature> 14 </feature>
								<threshold> 0.5676753 </threshold>
								<split pos="left">
									<output> 1.0006332397460938 </output>
								</split>
								<split pos="right">
									<output> 0.0 </output>
								</split>
							</split>
						</split>
					</split>
					<split pos="right">
						<output> 1.000707983970642 </output>
					</split>
				</split>
			</split>
		</split>
	</tree>
	<tree id="35" weight="0.1">
		<split>
			<feature> 7 </feature>
			<threshold> -0.453296 </threshold>
			<split pos="left">
				<feature> 1 </feature>
				<threshold> -0.7744541 </threshold>
				<split pos="left">
					<output> 0.0 </output>
				</split>
				<split pos="right">
					<feature> 7 </feature>
					<threshold> -0.59860736 </threshold>
					<split pos="left">
						<output> 0.0 </output>
					</split>
					<split pos="right">
						<output> -1.0005346536636353 </output>
					</split>
				</split>
			</split>
			<split pos="right">
				<feature> 24 </feature>
				<threshold> -0.13090086 </threshold>
				<split pos="left">
					<feature> 1 </feature>
					<threshold> -1.0050068 </threshold>
					<split pos="left">
						<output> 0.0 </output>
					</split>
					<split pos="right">
						<output> 1.0005183219909668 </output>
					</split>
				</split>
				<split pos="right">
					<feature> 16 </feature>
					<threshold> -0.087396234 </threshold>
					<split pos="left">
						<feature> 1 </feature>
						<threshold> -1.0050068 </threshold>
						<split pos="left">
							<output> 1.0005183219909668 </output>
						</split>
						<split pos="right">
							<feature> 22 </feature>
							<threshold> -0.029729076 </threshold>
							<split pos="left">
								<output> 1.0005184412002563 </output>
							</split>
							<split pos="right">
								<feature> 1 </feature>
								<threshold> -0.9391346 </threshold>
								<split pos="left">
									<output> 0.0 </output>
								</split>
								<split pos="right">
									<output> 1.0005183219909668 </output>
								</split>
							</split>
						</split>
					</split>
					<split pos="right">
						<output> 1.000579595565796 </output>
					</split>
				</split>
			</split>
		</split>
	</tree>
	<tree id="36" weight="0.1">
		<split>
			<feature> 7 </feature>
			<threshold> -0.453296 </threshold>
			<split pos="left">
				<feature> 1 </feature>
				<threshold> -0.7744541 </threshold>
				<split pos="left">
					<output> 0.0 </output>
				</split>
				<split pos="right">
					<feature> 7 </feature>
					<threshold> -0.59860736 </threshold>
					<split pos="left">
						<output> 0.0 </output>
					</split>
					<split pos="right">
						<output> -1.0004099607467651 </output>
					</split>
				</split>
			</split>
			<split pos="right">
				<feature> 24 </feature>
				<threshold> -0.13090086 </threshold>
				<split pos="left">
					<feature> 1 </feature>
					<threshold> -1.0050068 </threshold>
					<split pos="left">
						<output> 0.0 </output>
					</split>
					<split pos="right">
						<output> 1.0004243850708008 </output>
					</split>
				</split>
				<split pos="right">
					<feature> 16 </feature>
					<threshold> -0.127657 </threshold>
					<split pos="left">
						<feature> 1 </feature>
						<threshold> -1.0050068 </threshold>
						<split pos="left">
							<output> 1.0004243850708008 </output>
						</split>
						<split pos="right">
							<feature> 22 </feature>
							<threshold> -0.029729076 </threshold>
							<split pos="left">
								<output> 1.0004243850708008 </output>
							</split>
							<split pos="right">
								<feature> 13 </feature>
								<threshold> -0.22743875 </threshold>
								<split pos="left">
									<output> 1.0004242658615112 </output>
								</split>
								<split pos="right">
									<output> 0.0 </output>
								</split>
							</split>
						</split>
					</split>
					<split pos="right">
						<output> 1.000474452972412 </output>
					</split>
				</split>
			</split>
		</split>
	</tree>
	<tree id="37" weight="0.1">
		<split>
			<feature> 7 </feature>
			<threshold> -0.453296 </threshold>
			<split pos="left">
				<feature> 1 </feature>
				<threshold> -0.7744541 </threshold>
				<split pos="left">
					<output> 0.0 </output>
				</split>
				<split pos="right">
					<feature> 7 </feature>
					<threshold> -0.59860736 </threshold>
					<split pos="left">
						<output> 0.0 </output>
					</split>
					<split pos="right">
						<output> -1.000343918800354 </output>
					</split>
				</split>
			</split>
			<split pos="right">
				<feature> 24 </feature>
				<threshold> -0.13090086 </threshold>
				<split pos="left">
					<feature> 1 </feature>
					<threshold> -1.0050068 </threshold>
					<split pos="left">
						<output> 0.0 </output>
					</split>
					<split pos="right">
						<output> 1.000347375869751 </output>
					</split>
				</split>
				<split pos="right">
					<feature> 16 </feature>
					<threshold> -0.127657 </threshold>
					<split pos="left">
						<feature> 19 </feature>
						<threshold> -0.09156857 </threshold>
						<split pos="left">
							<feature> 22 </feature>
							<threshold> -0.029729076 </threshold>
							<split pos="left">
								<output> 1.000347375869751 </output>
							</split>
							<split pos="right">
								<feature> 1 </feature>
								<threshold> -0.9391346 </threshold>
								<split pos="left">
									<output> 0.0 </output>
								</split>
								<split pos="right">
									<output> 1.0003474950790405 </output>
								</split>
							</split>
						</split>
						<split pos="right">
							<output> 1.000347375869751 </output>
						</split>
					</split>
					<split pos="right">
						<output> 1.000388503074646 </output>
					</split>
				</split>
			</split>
		</split>
	</tree>
	<tree id="38" weight="0.1">
		<split>
			<feature> 7 </feature>
			<threshold> -0.453296 </threshold>
			<split pos="left">
				<feature> 1 </feature>
				<threshold> -0.7744541 </threshold>
				<split pos="left">
					<output> 0.0 </output>
				</split>
				<split pos="right">
					<feature> 7 </feature>
					<threshold> -0.59860736 </threshold>
					<split pos="left">
						<output> 0.0 </output>
					</split>
					<split pos="right">
						<output> -1.000289797782898 </output>
					</split>
				</split>
			</split>
			<split pos="right">
				<feature> 24 </feature>
				<threshold> -0.13090086 </threshold>
				<split pos="left">
					<feature> 1 </feature>
					<threshold> -1.0050068 </threshold>
					<split pos="left">
						<output> 0.0 </output>
					</split>
					<split pos="right">
						<output> 1.0002844333648682 </output>
					</split>
				</split>
				<split pos="right">
					<feature> 19 </feature>
					<threshold> 4.2937137E-4 </threshold>
					<split pos="left">
						<feature> 1 </feature>
						<threshold> -1.0050068 </threshold>
						<split pos="left">
							<output> 1.0002844333648682 </output>
						</split>
						<split pos="right">
							<feature> 22 </feature>
							<threshold> -0.029729076 </threshold>
							<split pos="left">
								<output> 1.0002844333648682 </output>
							</split>
							<split pos="right">
								<feature> 1 </feature>
								<threshold> -0.9391346 </threshold>
								<split pos="left">
									<output> 0.0 </output>
								</split>
								<split pos="right">
									<output> 1.0002844333648682 </output>
								</split>
							</split>
						</split>
					</split>
					<split pos="right">
						<output> 1.0003180503845215 </output>
					</split>
				</split>
			</split>
		</split>
	</tree>
	<tree id="39" weight="0.1">
		<split>
			<feature> 7 </feature>
			<threshold> -0.453296 </threshold>
			<split pos="left">
				<feature> 1 </feature>
				<threshold> -0.7744541 </threshold>
				<split pos="left">
					<output> 0.0 </output>
				</split>
				<split pos="right">
					<feature> 7 </feature>
					<threshold> -0.59860736 </threshold>
					<split pos="left">
						<output> 0.0 </output>
					</split>
					<split pos="right">
						<output> -1.0002219676971436 </output>
					</split>
				</split>
			</split>
			<split pos="right">
				<feature> 24 </feature>
				<threshold> -0.13090086 </threshold>
				<split pos="left">
					<feature> 1 </feature>
					<threshold> -1.0050068 </threshold>
					<split pos="left">
						<output> 0.0 </output>
					</split>
					<split pos="right">
						<output> 1.0002328157424927 </output>
					</split>
				</split>
				<split pos="right">
					<feature> 20 </feature>
					<threshold> -0.057263598 </threshold>
					<split pos="left">
						<feature> 1 </feature>
						<threshold> -1.0050068 </threshold>
						<split pos="left">
							<output> 1.0002328157424927 </output>
						</split>
						<split pos="right">
							<feature> 22 </feature>
							<threshold> -0.029729076 </threshold>
							<split pos="left">
								<output> 1.0002329349517822 </output>
							</split>
							<split pos="right">
								<feature> 14 </feature>
								<threshold> 0.5676753 </threshold>
								<split pos="left">
									<output> 1.0002329349517822 </output>
								</split>
								<split pos="right">
									<output> 0.0 </output>
								</split>
							</split>
						</split>
					</split>
					<split pos="right">
						<output> 1.0002602338790894 </output>
					</split>
				</split>
			</split>
		</split>
	</tree>
	<tree id="40" weight="0.1">
		<split>
			<feature> 7 </feature>
			<threshold> -0.453296 </threshold>
			<split pos="left">
				<feature> 1 </feature>
				<threshold> -0.7744541 </threshold>
				<split pos="left">
					<output> 0.0 </output>
				</split>
				<split pos="right">
					<feature> 7 </feature>
					<threshold> -0.59860736 </threshold>
					<split pos="left">
						<output> 0.0 </output>
					</split>
					<split pos="right">
						<output> -1.0001776218414307 </output>
					</split>
				</split>
			</split>
			<split pos="right">
				<feature> 24 </feature>
				<threshold> -0.13090086 </threshold>
				<split pos="left">
					<feature> 1 </feature>
					<threshold> -1.0050068 </threshold>
					<split pos="left">
						<output> 0.0 </output>
					</split>
					<split pos="right">
						<output> 1.0001906156539917 </output>
					</split>
				</split>
				<split pos="right">
					<feature> 16 </feature>
					<threshold> -0.1544975 </threshold>
					<split pos="left">
						<feature> 13 </feature>
						<threshold> 0.088522345 </threshold>
						<split pos="left">
							<output> 1.0001906156539917 </output>
						</split>
						<split pos="right">
							<output> 0.0 </output>
						</split>
					</split>
					<split pos="right">
						<feature> 16 </feature>
						<threshold> -0.127657 </threshold>
						<split pos="left">
							<feature> 1 </feature>
							<threshold> -1.0050068 </threshold>
							<split pos="left">
								<output> 1.0001906156539917 </output>
							</split>
							<split pos="right">
								<output> 1.0001906156539917 </output>
							</split>
						</split>
						<split pos="right">
							<output> 1.0002131462097168 </output>
						</split>
					</split>
				</split>
			</split>
		</split>
	</tree>
	<tree id="41" weight="0.1">
		<split>
			<feature> 7 </feature>
			<threshold> -0.453296 </threshold>
			<split pos="left">
				<feature> 1 </feature>
				<threshold> -0.7744541 </threshold>
				<split pos="left">
					<output> 0.0 </output>
				</split>
				<split pos="right">
					<feature> 7 </feature>
					<threshold> -0.59860736 </threshold>
					<split pos="left">
						<output> 0.0 </output>
					</split>
					<split pos="right">
						<output> -1.000142216682434 </output>
					</split>
				</split>
			</split>
			<split pos="right">
				<feature> 24 </feature>
				<threshold> -0.13090086 </threshold>
				<split pos="left">
					<feature> 1 </feature>
					<threshold> -1.0050068 </threshold>
					<split pos="left">
						<output> 0.0 </output>
					</split>
					<split pos="right">
						<output> 1.000156044960022 </output>
					</split>
				</split>
				<split pos="right">
					<feature> 16 </feature>
					<threshold> -0.1544975 </threshold>
					<split pos="left">
						<feature> 13 </feature>
						<threshold> 0.088522345 </threshold>
						<split pos="left">
							<output> 1.0001561641693115 </output>
						</split>
						<split pos="right">
							<output> 0.0 </output>
						</split>
					</split>
					<split pos="right">
						<feature> 16 </feature>
						<threshold> -0.087396234 </threshold>
						<split pos="left">
							<feature> 1 </feature>
							<threshold> -1.0050068 </threshold>
							<split pos="left">
								<output> 1.000156044960022 </output>
							</split>
							<split pos="right">
								<output> 1.000156044960022 </output>
							</split>
						</split>
						<split pos="right">
							<output> 1.0001744031906128 </output>
						</split>
					</split>
				</split>
			</split>
		</split>
	</tree>
	<tree id="42" weight="0.1">
		<split>
			<feature> 7 </feature>
			<threshold> -0.453296 </threshold>
			<split pos="left">
				<feature> 1 </feature>
				<threshold> -0.7744541 </threshold>
				<split pos="left">
					<output> 0.0 </output>
				</split>
				<split pos="right">
					<feature> 7 </feature>
					<threshold> -0.59860736 </threshold>
					<split pos="left">
						<output> 0.0 </output>
					</split>
					<split pos="right">
						<output> -1.0001261234283447 </output>
					</split>
				</split>
			</split>
			<split pos="right">
				<feature> 24 </feature>
				<threshold> -0.13090086 </threshold>
				<split pos="left">
					<feature> 1 </feature>
					<threshold> -1.0050068 </threshold>
					<split pos="left">
						<output> 0.0 </output>
					</split>
					<split pos="right">
						<output> 1.0001277923583984 </output>
					</split>
				</split>
				<split pos="right">
					<feature> 16 </feature>
					<threshold> -0.1544975 </threshold>
					<split pos="left">
						<feature> 13 </feature>
						<threshold> 0.088522345 </threshold>
						<split pos="left">
							<output> 1.0001277923583984 </output>
						</split>
						<split pos="right">
							<output> 0.0 </output>
						</split>
					</split>
					<split pos="right">
						<feature> 16 </feature>
						<threshold> -0.127657 </threshold>
						<split pos="left">
							<feature> 1 </feature>
							<threshold> -1.0050068 </threshold>
							<split pos="left">
								<output> 1.0001277923583984 </output>
							</split>
							<split pos="right">
								<output> 1.0001277923583984 </output>
							</split>
						</split>
						<split pos="right">
							<output> 1.0001429319381714 </output>
						</split>
					</split>
				</split>
			</split>
		</split>
	</tree>
	<tree id="43" weight="0.1">
		<split>
			<feature> 7 </feature>
			<threshold> -0.453296 </threshold>
			<split pos="left">
				<feature> 1 </feature>
				<threshold> -0.7744541 </threshold>
				<split pos="left">
					<output> 0.0 </output>
				</split>
				<split pos="right">
					<feature> 7 </feature>
					<threshold> -0.59860736 </threshold>
					<split pos="left">
						<output> 0.0 </output>
					</split>
					<split pos="right">
						<output> -1.0001256465911865 </output>
					</split>
				</split>
			</split>
			<split pos="right">
				<feature> 24 </feature>
				<threshold> -0.13090086 </threshold>
				<split pos="left">
					<feature> 1 </feature>
					<threshold> -1.0050068 </threshold>
					<split pos="left">
						<output> 0.0 </output>
					</split>
					<split pos="right">
						<output> 1.0001046657562256 </output>
					</split>
				</split>
				<split pos="right">
					<feature> 16 </feature>
					<threshold> -0.1544975 </threshold>
					<split pos="left">
						<feature> 13 </feature>
						<threshold> 0.088522345 </threshold>
						<split pos="left">
							<output> 1.000104546546936 </output>
						</split>
						<split pos="right">
							<output> 0.0 </output>
						</split>
					</split>
					<split pos="right">
						<feature> 16 </feature>
						<threshold> -0.127657 </threshold>
						<split pos="left">
							<feature> 1 </feature>
							<threshold> -1.0050068 </threshold>
							<split pos="left">
								<output> 1.000104546546936 </output>
							</split>
							<split pos="right">
								<output> 1.0001046657562256 </output>
							</split>
						</split>
						<split pos="right">
							<output> 1.0001169443130493 </output>
						</split>
					</split>
				</split>
			</split>
		</split>
	</tree>
	<tree id="44" weight="0.1">
		<split>
			<feature> 7 </feature>
			<threshold> -0.453296 </threshold>
			<split pos="left">
				<feature> 1 </feature>
				<threshold> -0.7744541 </threshold>
				<split pos="left">
					<output> 0.0 </output>
				</split>
				<split pos="right">
					<feature> 7 </feature>
					<threshold> -0.59860736 </threshold>
					<split pos="left">
						<output> 0.0 </output>
					</split>
					<split pos="right">
						<output> -1.0000922679901123 </output>
					</split>
				</split>
			</split>
			<split pos="right">
				<feature> 24 </feature>
				<threshold> -0.13090086 </threshold>
				<split pos="left">
					<feature> 1 </feature>
					<threshold> -1.0050068 </threshold>
					<split pos="left">
						<output> 0.0 </output>
					</split>
					<split pos="right">
						<output> 1.000085711479187 </output>
					</split>
				</split>
				<split pos="right">
					<feature> 16 </feature>
					<threshold> -0.1544975 </threshold>
					<split pos="left">
						<feature> 13 </feature>
						<threshold> 0.088522345 </threshold>
						<split pos="left">
							<output> 1.000085711479187 </output>
						</split>
						<split pos="right">
							<output> 0.0 </output>
						</split>
					</split>
					<split pos="right">
						<feature> 16 </feature>
						<threshold> -0.127657 </threshold>
						<split pos="left">
							<feature> 1 </feature>
							<threshold> -1.0050068 </threshold>
							<split pos="left">
								<output> 1.000085711479187 </output>
							</split>
							<split pos="right">
								<output> 1.0000855922698975 </output>
							</split>
						</split>
						<split pos="right">
							<output> 1.0000957250595093 </output>
						</split>
					</split>
				</split>
			</split>
		</split>
	</tree>
	<tree id="45" weight="0.1">
		<split>
			<feature> 7 </feature>
			<threshold> -0.453296 </threshold>
			<split pos="left">
				<feature> 1 </feature>
				<threshold> -0.7744541 </threshold>
				<split pos="left">
					<output> 0.0 </output>
				</split>
				<split pos="right">
					<feature> 7 </feature>
					<threshold> -0.59860736 </threshold>
					<split pos="left">
						<output> 0.0 </output>
					</split>
					<split pos="right">
						<output> -1.0000675916671753 </output>
					</split>
				</split>
			</split>
			<split pos="right">
				<feature> 24 </feature>
				<threshold> -0.13090086 </threshold>
				<split pos="left">
					<feature> 1 </feature>
					<threshold> -1.0050068 </threshold>
					<split pos="left">
						<output> 0.0 </output>
					</split>
					<split pos="right">
						<output> 1.0000700950622559 </output>
					</split>
				</split>
				<split pos="right">
					<feature> 16 </feature>
					<threshold> -0.1544975 </threshold>
					<split pos="left">
						<feature> 13 </feature>
						<threshold> 0.088522345 </threshold>
						<split pos="left">
							<output> 1.0000700950622559 </output>
						</split>
						<split pos="right">
							<output> 0.0 </output>
						</split>
					</split>
					<split pos="right">
						<feature> 16 </feature>
						<threshold> -0.087396234 </threshold>
						<split pos="left">
							<feature> 1 </feature>
							<threshold> -1.0050068 </threshold>
							<split pos="left">
								<output> 1.0000700950622559 </output>
							</split>
							<split pos="right">
								<output> 1.0000700950622559 </output>
							</split>
						</split>
						<split pos="right">
							<output> 1.0000784397125244 </output>
						</split>
					</split>
				</split>
			</split>
		</split>
	</tree>
	<tree id="46" weight="0.1">
		<split>
			<feature> 7 </feature>
			<threshold> -0.453296 </threshold>
			<split pos="left">
				<feature> 1 </feature>
				<threshold> -0.7744541 </threshold>
				<split pos="left">
					<output> 0.0 </output>
				</split>
				<split pos="right">
					<feature> 7 </feature>
					<threshold> -0.59860736 </threshold>
					<split pos="left">
						<output> 0.0 </output>
					</split>
					<split pos="right">
						<output> -1.0000590085983276 </output>
					</split>
				</split>
			</split>
			<split pos="right">
				<feature> 24 </feature>
				<threshold> -0.13090086 </threshold>
				<split pos="left">
					<feature> 1 </feature>
					<threshold> -1.0050068 </threshold>
					<split pos="left">
						<output> 0.0 </output>
					</split>
					<split pos="right">
						<output> 1.0000574588775635 </output>
					</split>
				</split>
				<split pos="right">
					<feature> 16 </feature>
					<threshold> -0.1544975 </threshold>
					<split pos="left">
						<feature> 13 </feature>
						<threshold> 0.088522345 </threshold>
						<split pos="left">
							<output> 1.000057339668274 </output>
						</split>
						<split pos="right">
							<output> 0.0 </output>
						</split>
					</split>
					<split pos="right">
						<feature> 16 </feature>
						<threshold> -0.127657 </threshold>
						<split pos="left">
							<feature> 1 </feature>
							<threshold> -1.0050068 </threshold>
							<split pos="left">
								<output> 1.0000574588775635 </output>
							</split>
							<split pos="right">
								<output> 1.0000574588775635 </output>
							</split>
						</split>
						<split pos="right">
							<output> 1.0000641345977783 </output>
						</split>
					</split>
				</split>
			</split>
		</split>
	</tree>
	<tree id="47" weight="0.1">
		<split>
			<feature> 7 </feature>
			<threshold> -0.453296 </threshold>
			<split pos="left">
				<feature> 1 </feature>
				<threshold> -0.7744541 </threshold>
				<split pos="left">
					<output> 0.0 </output>
				</split>
				<split pos="right">
					<feature> 7 </feature>
					<threshold> -0.59860736 </threshold>
					<split pos="left">
						<output> 0.0 </output>
					</split>
					<split pos="right">
						<output> -1.0000579357147217 </output>
					</split>
				</split>
			</split>
			<split pos="right">
				<feature> 24 </feature>
				<threshold> -0.13090086 </threshold>
				<split pos="left">
					<feature> 1 </feature>
					<threshold> -1.0050068 </threshold>
					<split pos="left">
						<output> 0.0 </output>
					</split>
					<split pos="right">
						<output> 1.000046968460083 </output>
					</split>
				</split>
				<split pos="right">
					<feature> 16 </feature>
					<threshold> -0.1544975 </threshold>
					<split pos="left">
						<feature> 13 </feature>
						<threshold> 0.088522345 </threshold>
						<split pos="left">
							<output> 1.000046968460083 </output>
						</split>
						<split pos="right">
							<output> 0.0 </output>
						</split>
					</split>
					<split pos="right">
						<feature> 16 </feature>
						<threshold> -0.127657 </threshold>
						<split pos="left">
							<feature> 1 </feature>
							<threshold> -1.0050068 </threshold>
							<split pos="left">
								<output> 1.0000470876693726 </output>
							</split>
							<split pos="right">
								<output> 1.000046968460083 </output>
							</split>
						</split>
						<split pos="right">
							<output> 1.000052571296692 </output>
						</split>
					</split>
				</split>
			</split>
		</split>
	</tree>
	<tree id="48" weight="0.1">
		<split>
			<feature> 7 </feature>
			<threshold> -0.453296 </threshold>
			<split pos="left">
				<feature> 1 </feature>
				<threshold> -0.7744541 </threshold>
				<split pos="left">
					<output> 0.0 </output>
				</split>
				<split pos="right">
					<feature> 7 </feature>
					<threshold> -0.59860736 </threshold>
					<split pos="left">
						<output> 0.0 </output>
					</split>
					<split pos="right">
						<output> -1.0000399351119995 </output>
					</split>
				</split>
			</split>
			<split pos="right">
				<feature> 24 </feature>
				<threshold> -0.13090086 </threshold>
				<split pos="left">
					<feature> 1 </feature>
					<threshold> -1.0050068 </threshold>
					<split pos="left">
						<output> 0.0 </output>
					</split>
					<split pos="right">
						<output> 1.000038504600525 </output>
					</split>
				</split>
				<split pos="right">
					<feature> 16 </feature>
					<threshold> -0.127657 </threshold>
					<split pos="left">
						<feature> 1 </feature>
						<threshold> -1.0050068 </threshold>
						<split pos="left">
							<output> 1.000038504600525 </output>
						</split>
						<split pos="right">
							<feature> 22 </feature>
							<threshold> -0.029729076 </threshold>
							<split pos="left">
								<output> 1.000038504600525 </output>
							</split>
							<split pos="right">
								<feature> 1 </feature>
								<threshold> -0.9391346 </threshold>
								<split pos="left">
									<output> 0.0 </output>
								</split>
								<split pos="right">
									<output> 1.000038504600525 </output>
								</split>
							</split>
						</split>
					</split>
					<split pos="right">
						<output> 1.0000430345535278 </output>
					</split>
				</split>
			</split>
		</split>
	</tree>
	<tree id="49" weight="0.1">
		<split>
			<feature> 7 </feature>
			<threshold> -0.453296 </threshold>
			<split pos="left">
				<feature> 1 </feature>
				<threshold> -0.7744541 </threshold>
				<split pos="left">
					<output> 0.0 </output>
				</split>
				<split pos="right">
					<feature> 7 </feature>
					<threshold> -0.59860736 </threshold>
					<split pos="left">
						<output> 0.0 </output>
					</split>
					<split pos="right">
						<output> -1.0000452995300293 </output>
					</split>
				</split>
			</split>
			<split pos="right">
				<feature> 24 </feature>
				<threshold> -0.13090086 </threshold>
				<split pos="left">
					<feature> 1 </feature>
					<threshold> -1.0050068 </threshold>
					<split pos="left">
						<output> 0.0 </output>
					</split>
					<split pos="right">
						<output> 1.0000314712524414 </output>
					</split>
				</split>
				<split pos="right">
					<feature> 16 </feature>
					<threshold> -0.127657 </threshold>
					<split pos="left">
						<feature> 1 </feature>
						<threshold> -1.0050068 </threshold>
						<split pos="left">
							<output> 1.0000314712524414 </output>
						</split>
						<split pos="right">
							<feature> 22 </feature>
							<threshold> -0.029729076 </threshold>
							<split pos="left">
								<output> 1.0000314712524414 </output>
							</split>
							<split pos="right">
								<feature> 13 </feature>
								<threshold> -0.10105431 </threshold>
								<split pos="left">
									<output> 1.000031590461731 </output>
								</split>
								<split pos="right">
									<output> 0.0 </output>
								</split>
							</split>
						</split>
					</split>
					<split pos="right">
						<output> 1.0000351667404175 </output>
					</split>
				</split>
			</split>
		</split>
	</tree>
	<tree id="50" weight="0.1">
		<split>
			<feature> 7 </feature>
			<threshold> -0.453296 </threshold>
			<split pos="left">
				<feature> 1 </feature>
				<threshold> -0.7744541 </threshold>
				<split pos="left">
					<output> 0.0 </output>
				</split>
				<split pos="right">
					<feature> 7 </feature>
					<threshold> -0.59860736 </threshold>
					<split pos="left">
						<output> 0.0 </output>
					</split>
					<split pos="right">
						<output> -1.0000383853912354 </output>
					</split>
				</split>
			</split>
			<split pos="right">
				<feature> 24 </feature>
				<threshold> -0.13090086 </threshold>
				<split pos="left">
					<feature> 1 </feature>
					<threshold> -1.0050068 </threshold>
					<split pos="left">
						<output> 0.0 </output>
					</split>
					<split pos="right">
						<output> 1.000025749206543 </output>
					</split>
				</split>
				<split pos="right">
					<feature> 20 </feature>
					<threshold> -0.057263598 </threshold>
					<split pos="left">
						<feature> 5 </feature>
						<threshold> -0.5604853 </threshold>
						<split pos="left">
							<feature> 22 </feature>
							<threshold> -0.029729076 </threshold>
							<split pos="left">
								<output> 1.0000258684158325 </output>
							</split>
							<split pos="right">
								<feature> 13 </feature>
								<threshold> -0.22743875 </threshold>
								<split pos="left">
									<output> 1.000025749206543 </output>
								</split>
								<split pos="right">
									<output> 0.0 </output>
								</split>
							</split>
						</split>
						<split pos="right">
							<output> 1.0000256299972534 </output>
						</split>
					</split>
					<split pos="right">
						<output> 1.0000288486480713 </output>
					</split>
				</split>
			</split>
		</split>
	</tree>
	<tree id="51" weight="0.1">
		<split>
			<feature> 7 </feature>
			<threshold> -0.453296 </threshold>
			<split pos="left">
				<feature> 1 </feature>
				<threshold> -0.7744541 </threshold>
				<split pos="left">
					<output> 0.0 </output>
				</split>
				<split pos="right">
					<feature> 7 </feature>
					<threshold> -0.59860736 </threshold>
					<split pos="left">
						<output> 0.0 </output>
					</split>
					<split pos="right">
						<output> -1.0000245571136475 </output>
					</split>
				</split>
			</split>
			<split pos="right">
				<feature> 24 </feature>
				<threshold> -0.13090086 </threshold>
				<split pos="left">
					<feature> 1 </feature>
					<threshold> -1.0050068 </threshold>
					<split pos="left">
						<output> 0.0 </output>
					</split>
					<split pos="right">
						<output> 1.0000211000442505 </output>
					</split>
				</split>
				<split pos="right">
					<feature> 16 </feature>
					<threshold> -0.1544975 </threshold>
					<split pos="left">
						<feature> 13 </feature>
						<threshold> 0.088522345 </threshold>
						<split pos="left">
							<output> 1.0000211000442505 </output>
						</split>
						<split pos="right">
							<output> 0.0 </output>
						</split>
					</split>
					<split pos="right">
						<feature> 16 </feature>
						<threshold> -0.127657 </threshold>
						<split pos="left">
							<feature> 1 </feature>
							<threshold> -1.0050068 </threshold>
							<split pos="left">
								<output> 1.0000211000442505 </output>
							</split>
							<split pos="right">
								<output> 1.0000211000442505 </output>
							</split>
						</split>
						<split pos="right">
							<output> 1.000023603439331 </output>
						</split>
					</split>
				</split>
			</split>
		</split>
	</tree>
	<tree id="52" weight="0.1">
		<split>
			<feature> 7 </feature>
			<threshold> -0.453296 </threshold>
			<split pos="left">
				<feature> 1 </feature>
				<threshold> -0.7744541 </threshold>
				<split pos="left">
					<output> 0.0 </output>
				</split>
				<split pos="right">
					<feature> 7 </feature>
					<threshold> -0.59860736 </threshold>
					<split pos="left">
						<output> 0.0 </output>
					</split>
					<split pos="right">
						<output> -1.0000044107437134 </output>
					</split>
				</split>
			</split>
			<split pos="right">
				<feature> 24 </feature>
				<threshold> -0.13090086 </threshold>
				<split pos="left">
					<feature> 1 </feature>
					<threshold> -1.0050068 </threshold>
					<split pos="left">
						<output> 0.0 </output>
					</split>
					<split pos="right">
						<output> 1.0000172853469849 </output>
					</split>
				</split>
				<split pos="right">
					<feature> 16 </feature>
					<threshold> -0.1544975 </threshold>
					<split pos="left">
						<feature> 13 </feature>
						<threshold> 0.088522345 </threshold>
						<split pos="left">
							<output> 1.0000172853469849 </output>
						</split>
						<split pos="right">
							<output> 0.0 </output>
						</split>
					</split>
					<split pos="right">
						<feature> 16 </feature>
						<threshold> -0.127657 </threshold>
						<split pos="left">
							<feature> 1 </feature>
							<threshold> -1.0050068 </threshold>
							<split pos="left">
								<output> 1.0000172853469849 </output>
							</split>
							<split pos="right">
								<output> 1.0000172853469849 </output>
							</split>
						</split>
						<split pos="right">
							<output> 1.0000194311141968 </output>
						</split>
					</split>
				</split>
			</split>
		</split>
	</tree>
	<tree id="53" weight="0.1">
		<split>
			<feature> 7 </feature>
			<threshold> -0.453296 </threshold>
			<split pos="left">
				<feature> 1 </feature>
				<threshold> -0.7744541 </threshold>
				<split pos="left">
					<output> 0.0 </output>
				</split>
				<split pos="right">
					<feature> 7 </feature>
					<threshold> -0.59860736 </threshold>
					<split pos="left">
						<output> 0.0 </output>
					</split>
					<split pos="right">
						<output> -1.0000046491622925 </output>
					</split>
				</split>
			</split>
			<split pos="right">
				<feature> 24 </feature>
				<threshold> -0.13090086 </threshold>
				<split pos="left">
					<feature> 1 </feature>
					<threshold> -1.0050068 </threshold>
					<split pos="left">
						<output> 0.0 </output>
					</split>
					<split pos="right">
						<output> 1.0000141859054565 </output>
					</split>
				</split>
				<split pos="right">
					<feature> 16 </feature>
					<threshold> -0.1544975 </threshold>
					<split pos="left">
						<feature> 13 </feature>
						<threshold> 0.088522345 </threshold>
						<split pos="left">
							<output> 1.0000141859054565 </output>
						</split>
						<split pos="right">
							<output> 0.0 </output>
						</split>
					</split>
					<split pos="right">
						<feature> 16 </feature>
						<threshold> -0.127657 </threshold>
						<split pos="left">
							<feature> 5 </feature>
							<threshold> -0.5604853 </threshold>
							<split pos="left">
								<output> 1.0000141859054565 </output>
							</split>
							<split pos="right">
								<output> 1.0000141859054565 </output>
							</split>
						</split>
						<split pos="right">
							<output> 1.0000157356262207 </output>
						</split>
					</split>
				</split>
			</split>
		</split>
	</tree>
	<tree id="54" weight="0.1">
		<split>
			<feature> 7 </feature>
			<threshold> -0.453296 </threshold>
			<split pos="left">
				<feature> 1 </feature>
				<threshold> -0.7744541 </threshold>
				<split pos="left">
					<output> 0.0 </output>
				</split>
				<split pos="right">
					<feature> 7 </feature>
					<threshold> -0.59860736 </threshold>
					<split pos="left">
						<output> 0.0 </output>
					</split>
					<split pos="right">
						<output> -1.0000054836273193 </output>
					</split>
				</split>
			</split>
			<split pos="right">
				<feature> 24 </feature>
				<threshold> -0.13090086 </threshold>
				<split pos="left">
					<feature> 1 </feature>
					<threshold> -1.0050068 </threshold>
					<split pos="left">
						<output> 0.0 </output>
					</split>
					<split pos="right">
						<output> 1.000011682510376 </output>
					</split>
				</split>
				<split pos="right">
					<feature> 16 </feature>
					<threshold> -0.1544975 </threshold>
					<split pos="left">
						<feature> 13 </feature>
						<threshold> 0.088522345 </threshold>
						<split pos="left">
							<output> 1.0000115633010864 </output>
						</split>
						<split pos="right">
							<output> 0.0 </output>
						</split>
					</split>
					<split pos="right">
						<feature> 16 </feature>
						<threshold> -0.127657 </threshold>
						<split pos="left">
							<feature> 1 </feature>
							<threshold> -1.0050068 </threshold>
							<split pos="left">
								<output> 1.000011682510376 </output>
							</split>
							<split pos="right">
								<output> 1.0000115633010864 </output>
							</split>
						</split>
						<split pos="right">
							<output> 1.000012993812561 </output>
						</split>
					</split>
				</split>
			</split>
		</split>
	</tree>
	<tree id="55" weight="0.1">
		<split>
			<feature> 7 </feature>
			<threshold> -0.453296 </threshold>
			<split pos="left">
				<feature> 1 </feature>
				<threshold> -0.7744541 </threshold>
				<split pos="left">
					<output> 0.0 </output>
				</split>
				<split pos="right">
					<feature> 7 </feature>
					<threshold> -0.59860736 </threshold>
					<split pos="left">
						<output> 0.0 </output>
					</split>
					<split pos="right">
						<output> -1.0000076293945312 </output>
					</split>
				</split>
			</split>
			<split pos="right">
				<feature> 24 </feature>
				<threshold> -0.13090086 </threshold>
				<split pos="left">
					<feature> 1 </feature>
					<threshold> -1.0050068 </threshold>
					<split pos="left">
						<output> 0.0 </output>
					</split>
					<split pos="right">
						<output> 1.0000094175338745 </output>
					</split>
				</split>
				<split pos="right">
					<feature> 16 </feature>
					<threshold> -0.1544975 </threshold>
					<split pos="left">
						<feature> 13 </feature>
						<threshold> 0.088522345 </threshold>
						<split pos="left">
							<output> 1.0000094175338745 </output>
						</split>
						<split pos="right">
							<output> 0.0 </output>
						</split>
					</split>
					<split pos="right">
						<feature> 16 </feature>
						<threshold> -0.127657 </threshold>
						<split pos="left">
							<feature> 1 </feature>
							<threshold> -1.0050068 </threshold>
							<split pos="left">
								<output> 1.0000094175338745 </output>
							</split>
							<split pos="right">
								<output> 1.000009536743164 </output>
							</split>
						</split>
						<split pos="right">
							<output> 1.00001060962677 </output>
						</split>
					</split>
				</split>
			</split>
		</split>
	</tree>
	<tree id="56" weight="0.1">
		<split>
			<feature> 7 </feature>
			<threshold> -0.453296 </threshold>
			<split pos="left">
				<feature> 1 </feature>
				<threshold> -0.7744541 </threshold>
				<split pos="left">
					<output> 0.0 </output>
				</split>
				<split pos="right">
					<feature> 7 </feature>
					<threshold> -0.59860736 </threshold>
					<split pos="left">
						<output> 0.0 </output>
					</split>
					<split pos="right">
						<output> -1.0000028610229492 </output>
					</split>
				</split>
			</split>
			<split pos="right">
				<feature> 24 </feature>
				<threshold> -0.13090086 </threshold>
				<split pos="left">
					<feature> 1 </feature>
					<threshold> -1.0050068 </threshold>
					<split pos="left">
						<output> 0.0 </output>
					</split>
					<split pos="right">
						<output> 1.0000077486038208 </output>
					</split>
				</split>
				<split pos="right">
					<feature> 16 </feature>
					<threshold> -0.1544975 </threshold>
					<split pos="left">
						<feature> 13 </feature>
						<threshold> 0.088522345 </threshold>
						<split pos="left">
							<output> 1.0000077486038208 </output>
						</split>
						<split pos="right">
							<output> 0.0 </output>
						</split>
					</split>
					<split pos="right">
						<feature> 16 </feature>
						<threshold> -0.087396234 </threshold>
						<split pos="left">
							<feature> 5 </feature>
							<threshold> -0.5604853 </threshold>
							<split pos="left">
								<output> 1.0000077486038208 </output>
							</split>
							<split pos="right">
								<output> 1.0000077486038208 </output>
							</split>
						</split>
						<split pos="right">
							<output> 1.0000087022781372 </output>
						</split>
					</split>
				</split>
			</split>
		</split>
	</tree>
	<tree id="57" weight="0.1">
		<split>
			<feature> 7 </feature>
			<threshold> -0.453296 </threshold>
			<split pos="left">
				<feature> 1 </feature>
				<threshold> -0.7744541 </threshold>
				<split pos="left">
					<output> 0.0 </output>
				</split>
				<split pos="right">
